svm_type c_svc
kernel_type rbf
gamma 0.5
nr_class 2
total_sv 35
rho -0.03426585274386901
label 1 -1
nr_sv 18 17
SV
0.3608357709015727 1:-1.8871541 2:0.36623394 
0.8264518293363747 1:2.4812207 2:-2.080132 
0.3970820602015981 1:-2.37495 2:-1.2203792 
0.5103689854046347 1:2.2244961 2:1.0104424 
0.8216950363244658 1:-1.4990671 2:2.3250196 
0.12520967461610094 1:0.27925643 2:0.02332594 
0.5022984667215615 1:0.78119576 2:-1.3414733 
0.18807823132098683 1:-0.09163477 2:0.98738265 
0.7088387186294689 1:-1.0012835 2:-2.0468478 
0.1724453361795553 1:-0.58780813 2:-0.03334088 
0.7311811539106307 1:-3.4785264 2:-0.21820085 
0.40148066099488516 1:2.1181664 2:0.017521786 
0.063549375484613 1:-0.6857642 2:-0.17872249 
0.07769345654180441 1:0.37935525 2:0.28678206 
0.01633820725153065 1:-0.30299392 2:-0.23656175 
0.03810837884014132 1:-1.3272439 2:0.49023664 
0.7777456260033616 1:1.3316833 2:2.7180278 
0.2199824153708945 1:0.35089734 2:1.5128089 
-0.1178013913601159 1:9.358354 2:9.753629 
-0.011602130556000165 1:9.907259 2:9.783403 
-0.3057906552831398 1:9.711026 2:9.920462 
-0.6190696864725712 1:7.364483 2:9.013276 
-0.8812275299406256 1:12.951548 2:9.520002 
-0.16317311689457514 1:11.1187315 2:9.6367 
-0.5474785733694161 1:7.233802 2:10.275679 
-0.9286271834447265 1:8.687168 2:6.6262293 
-0.29753756153460764 1:8.236356 2:11.033487 
-0.7961926316172263 1:11.392381 2:7.875682 
-0.12547501503780162 1:8.746759 2:8.697711 
-0.6114038305131116 1:11.124519 2:11.403723 
-0.1867522868987761 1:11.226654 2:9.986616 
-0.18481627280563995 1:10.65163 2:11.7256775 
-0.2642932075386647 1:9.883774 2:8.354808 
-0.21398090859220184 1:9.132204 2:8.4654045 
-0.6841614021749806 1:9.129221 2:11.899186 
